12 12
1 5.0  0.434  0.027  0.220  -111 0.0001  1  1  0.463   0.196  1184138  2.250
2 5.0  0.434  0.027  0.220  -111 0.0001  1  1  0.463   0.196  1184138  2.250
3 5.0  0.434  0.027  0.220  -111 0.0001  1  1  0.463   0.196  1184138  2.250
4 5.0  0.434  0.027  0.220  -111 0.0001  1  1  0.463   0.196  1184138  2.250
5 5.0  0.434  0.027  0.220  -111 0.0001  1  1  0.463   0.196  1184138  2.250
6 5.0  0.434  0.027  0.220  -111 0.0001  1  1  0.463   0.196  1184138  2.250
7 5.0  0.434  0.027  0.220  -111 0.0001  1  1  0.463   0.196  1184138  2.250
8 5.0  0.434  0.027  0.220  -111 0.0001  1  1  0.463   0.196  1184138  2.250
9 5.0  0.434  0.027  0.220  -111 0.0001  1  1  0.463   0.196  1184138  2.250
10 5.0  0.434  0.027  0.220  -111 0.0001  1  1  0.463   0.196  1184138  2.250
11 5.0  0.434  0.027  0.220  -111 0.0001  1  1  0.463   0.196  1184138  2.250
12 5.0  0.434  0.027  0.220  -111 0.0001  1  1  0.463   0.196  1184138  2.250
